
\data\
ngram 1=53
ngram 2=589
ngram 3=572

\1-grams:
-0.9693365	</s>
-99	<s>	-2.497133
-0.6683065	SIL	-1.563157
-1.424181	a	-1.02878
-1.574674	aa	-0.6084842
-1.324797	ay	-0.8764602
-2.038831	b	-0.6564898
-2.871339	bb	-0.4414512
-2.172369	c	-1.212392
-1.799457	ch	-1.564632
-1.837916	d	-0.848437
-2.227887	dd	-1.316723
-2.491128	ee	-0.9457232
-2.208581	f	-0.9960197
-2.269279	g	-0.6702463
-2.725211	gg	-0.5921885
-2.227887	h	-0.9562595
-1.15701	i	-0.7511916
-1.880113	ii	-0.6588746
-1.94706	j	-1.186863
-2.138946	ja	-0.7632909
-1.806881	je	-0.3698619
-2.792158	jo	-0.7128562
-2.725211	ju	-0.7597794
-1.64603	k	-1.625578
-2.528917	kk	-1.034176
-1.744235	l	-1.00192
-1.799457	ll	-1.034007
-1.725211	m	-0.7920289
-2.366189	mm	-1.185444
-1.565988	n	-1.5285
-1.829947	nn	-1.67729
-1.592586	oo	-0.7355446
-1.764129	p	-1.493564
-2.491128	pp	-0.5123153
-1.689496	r	-1.117784
-2.051795	rr	-1.015733
-1.570309	s	-1.003725
-2.871339	sch	-0.4435058
-2.291556	sh	-0.8542507
-2.123151	ss	-1.285839
-1.536886	t	-0.9669197
-1.757396	tt	-1.929945
-1.917097	u	-1.198571
-2.269279	uj	-1.14336
-2.227887	uu	-0.9491037
-1.777918	v	-1.684941
-2.107911	vv	-1.432115
-1.880113	y	-1.207945
-2.269279	yy	-0.5465724
-2.002108	z	-0.8753971
-2.269279	zh	-1.547343
-3.093188	zz	-0.2586014

\2-grams:
-0.001087096	<s> SIL	-0.7463124
-0.30103	SIL </s>
-1.439605	SIL a	-0.08564862
-1.78806	SIL b	-0.145624
-2.902003	SIL bb
-2.769081	SIL c
-1.671554	SIL ch	0.3398856
-1.579784	SIL d	-0.03770331
-1.902003	SIL dd	0.6955116
-2.250341	SIL ee	-0.3119215
-2.056905	SIL f	-0.2068324
-2.250341	SIL g	-0.04335774
-2.902003	SIL gg
-2.769081	SIL h	-0.2172386
-2.299943	SIL i
-2.769081	SIL ii
-2.902003	SIL j
-1.383489	SIL k	-0.499044
-2.902003	SIL l
-2.299943	SIL ll	-0.277588
-1.94776	SIL m	-0.04775389
-2.250341	SIL mm	0.254038
-1.521792	SIL n	0.09258734
-1.600973	SIL nn	0.09269563
-2.250341	SIL oo	-0.09671718
-1.239245	SIL p	-0.004493224
-2.250341	SIL pp	-0.1692294
-1.78806	SIL r	0.02003454
-1.94776	SIL rr	0.4208742
-1.333801	SIL s	0.06116943
-2.902003	SIL sh
-2.299943	SIL ss	-0.02940767
-1.86061	SIL t	-0.07805975
-2.056905	SIL tt	0.1011246
-2.123852	SIL u	-0.2518275
-2.902003	SIL uu
-1.671554	SIL v	-0.2571914
-2.902003	SIL vv
-1.697883	SIL z	-0.3862942
-2.902003	SIL zh
-2.013206	a b	-0.218582
-2.146128	a bb
-1.845098	a ch
-1.066947	a d	-0.33961
-1.845098	a dd
-2.146128	a f
-1.367977	a g	-0.120393
-1.845098	a gg	-0.08368985
-1.845098	a ii	-0.394939
-1.494466	a j	-0.154794
-1.367977	a k	-0.04788578
-1.845098	a kk	-0.3724854
-1.494466	a l	-0.2895313
-2.013206	a ll
-1.845098	a m	-0.4390775
-2.146128	a mm
-1.191885	a n	-0.2862805
-1.494466	a nn	-0.1478611
-1.544068	a p	-0.6115649
-1.845098	a pp	-0.3995058
-1.30103	a r	-0.0306971
-2.013206	a rr
-1.032185	a s	-0.3081799
-2.146128	a ss
-1.066947	a t	-0.3603851
-2.013206	a tt	-0.2173274
-1.146128	a v	-0.1897533
-1.845098	a vv
-1.367977	a z	-0.235936
-1.367977	a zh	-0.1647077
-1.845098	a zz	-0.1898999
-0.9542425	aa SIL	-0.7781513
-1.995635	aa c
-1.217484	aa ch	-0.07573626
-1.862713	aa d	-0.1657297
-1.995635	aa dd
-1.995635	aa f
-1.393575	aa i	-0.4131153
-1.694605	aa j
-1.343973	aa k	-0.3934618
-1.995635	aa kk
-1.217484	aa l	-0.006463632
-1.343973	aa ll	-0.07086036
-1.862713	aa m	0.009122483
-1.995635	aa mm
-1.694605	aa n
-1.862713	aa nn	0.05611903
-1.995635	aa r
-1.217484	aa s	-0.1313735
-1.694605	aa sh	-0.172913
-1.694605	aa ss	-0.1933886
-1.862713	aa t	-0.175275
-1.092545	aa tt	0.5535188
-1.694605	aa uj
-1.995635	aa v
-1.092545	aa vv	-0.6232493
-1.862713	aa z	-0.1680709
-1.092545	aa zh	-0.447158
-0.4746607	ay SIL	-1.477121
-2.245513	ay b
-2.11259	ay ch	0.02809033
-2.245513	ay d
-2.245513	ay dd
-1.59385	ay f	0.1312403
-2.11259	ay g	-0.3793423
-1.944483	ay h
-1.041393	ay i	-0.3501258
-1.245513	ay j	-0.6485924
-1.643453	ay k	-0.1879495
-1.29127	ay l	-0.2108795
-2.11259	ay ll
-1.166331	ay m	-0.4490309
-2.245513	ay mm
-1.59385	ay n	-0.225758
-1.643453	ay p
-2.245513	ay pp
-1.944483	ay r
-2.245513	ay rr
-1.643453	ay s	-0.06168099
-2.245513	ay sh
-1.944483	ay ss	-0.3114879
-2.11259	ay t
-1.342423	ay tt	0.04838099
-2.245513	ay u
-2.245513	ay uj
-1.467361	ay v	-0.00516916
-1.944483	ay vv	-0.1206734
-1.59385	ay z	-0.1058244
-0.8798167	b a	-0.166075
-1.531479	b aa
-1.398557	b ay
-1.230449	b j	-0.4304774
-0.9294189	b oo	-0.1485883
-0.9294189	b r	-0.09495276
-0.8798167	b u	-0.157831
-0.9294189	b uu	-0.1281937
-1.398557	b y	-0.09878292
-1.398557	b yy
-0.69897	bb i
-0.5660477	bb ja	-0.1660391
-0.69897	bb je
-1.414973	c SIL
-1.414973	c aa
-0.2108534	c ay	-1.053122
-1.113943	c ee
-1.414973	c oo
-1.414973	c t
-1.414973	c vv
-1.414973	c y
-1.414973	c yy
-1.778151	ch SIL
-0.3309932	ch i	-0.0494446
-0.8239087	ch ii	-0.1835897
-1	ch ja	-0.02654362
-1.477121	ch je
-1.176091	ch jo	0.1018667
-1.778151	ch ju
-1.778151	ch kk
-1.176091	ch n	-0.08786353
-1.477121	ch t	-0.3959665
-1.778151	ch uj
-0.8293038	d a	-0.1116513
-0.8293038	d aa	-0.3656082
-0.7781513	d ay	0.02287811
-1.732394	d l
-1.732394	d ll
-1.080732	d n	-0.1481808
-1.431364	d nn
-1.130334	d oo
-1.431364	d r	-0.4438359
-1.599471	d u
-1.599471	d uu	-0.1066083
-1.130334	d v
-1.732394	d vv
-1.599471	d y
-0.2477845	dd i	-0.182727
-1.060698	dd ii
-0.5166298	dd je	-0.179454
-1.113943	ee SIL
-1.113943	ee l
-1.113943	ee n
-0.5118834	ee nn	-0.4635024
-0.5118834	ee t	-0.6948965
-1.113943	ee tt
-0.2825466	f SIL	-0.8129134
-1.361728	f ch
-1.060698	f r
-1.361728	f sh
-0.7596679	f ss	-0.1385521
-1.228806	f t	-0.3632295
-1.168108	g a	-0.3810247
-1.168108	g aa	-0.2269994
-1	g ay
-1.30103	g d
-1.30103	g dd
-0.5228788	g l	-0.09607441
-1.30103	g n
-1.30103	g oo
-1.30103	g u
-1.30103	g v
-0.7121757	gg i	-0.2312849
-0.243038	gg ii
-0.2284793	h SIL	-0.8450981
-1.2095	h a	-0.238662
-1.041393	h ay
-0.7403627	h oo
-0.5324862	i SIL	-1.585461
-2.4133	i a
-2.4133	i aa
-2.280377	i ay	-0.4065173
-1.51021	i b	-0.09050642
-2.280377	i bb	-0.272243
-1.635149	i c	-0.4301247
-1.81124	i ch	-0.2361469
-2.11227	i d
-2.4133	i f
-1.81124	i h	0.1220701
-1.267172	i i	-1.025243
-2.280377	i j	0.1478894
-1.635149	i k	-0.08011986
-2.4133	i kk
-1.568202	i l	-0.3416602
-1.237208	i ll	-0.06720179
-1.20918	i m	0.1130127
-2.280377	i mm	-0.1284054
-1.761638	i n	-0.1233573
-1.761638	i nn	-0.166075
-2.11227	i p	-0.2986992
-2.4133	i pp
-1.568202	i r	0.0177721
-1.635149	i rr	0.09059514
-1.237208	i s	-0.05233704
-2.4133	i sch
-1.81124	i sh	-0.1373789
-1.81124	i ss	-0.1259314
-1.182851	i t	-0.4446171
-1.635149	i tt	-0.1590735
-1.635149	i v	-0.1268116
-2.280377	i vv
-2.280377	i z	-0.2207773
-0.9120448	ii SIL	-0.544068
-1.389166	ii c
-0.9120448	ii ch	-0.3026422
-1.557274	ii h	-0.0217013
-1.690196	ii k
-1.038534	ii l	-0.2386909
-1.389166	ii ll	-0.3242673
-1.557274	ii m	-0.155848
-1.690196	ii mm
-1.557274	ii n
-1.690196	ii nn
-1.038534	ii s	-0.2027563
-1.389166	ii ss	-0.1933886
-1.690196	ii t
-0.7871061	ii tt	0.5535188
-0.2253093	j SIL	-1.113943
-1.322219	j dd
-1.322219	j i	-0.4257567
-1.021189	j ja	-0.1872382
-1.623249	j je
-1.490327	j ju	-0.1199722
-1.623249	j k
-1.322219	j s	-0.3437612
-1.623249	j t
-1.623249	j uj
-0.7797015	ja SIL	0.1119351
-1.431364	ja c
-1.431364	ja d
-0.6532125	ja i	-0.2045232
-1.431364	ja l
-1.431364	ja ll
-1.431364	ja s
-1.431364	ja ss
-1.130334	ja t
-0.7797015	ja tt	-0.1772229
-1.298441	ja uj	-0.2996323
-0.860338	je SIL	-0.6532125
-1.630506	je b	-0.3484606
-1.462398	je c
-1.630506	je ch	0.02809033
-1.630506	je d
-1.763428	je h
-1.763428	je i
-1.630506	je j	-0.2237217
-1.763428	je k
-1.630506	je l	-0.1822641
-1.763428	je ll
-1.462398	je m
-0.9852768	je nn	-0.04770756
-1.630506	je r
-1.462398	je rr
-1.161368	je s	-0.1189764
-1.763428	je ss
-1.111766	je t	-0.09933438
-1.111766	je tt	0.386797
-1.763428	je u
-0.845098	jo SIL
-0.845098	jo m
-0.243038	jo t	-0.2606143
-0.90309	ju SIL
-0.90309	ju d
-0.60206	ju s
-0.90309	ju ss
-0.60206	ju tt	-0.1572672
-0.7832909	k SIL	-0.8750613
-0.5869963	k a	-0.1564108
-0.9751764	k aa	-0.1606882
-0.9294189	k ay	0.008479279
-1.929419	k f
-1.628389	k l	-0.3964438
-1.628389	k ll	-0.4173389
-1.628389	k n	-0.4015878
-0.9751764	k oo	-0.07787951
-1.628389	k r
-1.929419	k t
-1.026329	k u	0.0008913781
-1.929419	k uu
-1.929419	k v
-0.2340832	kk i	-0.08894408
-0.7781513	kk ii
-0.7781513	kk je
-0.5473212	l SIL	-1
-0.9809768	l a	-0.2179797
-0.9229848	l aa	-0.2049591
-0.8718323	l ay	0.0825232
-1.525045	l gg	-0.3579963
-1.826075	l n
-1.047924	l oo	-0.3441008
-1.174413	l ss	0.0691831
-1.693152	l u	-0.3129715
-1.693152	l uu
-1.826075	l y
-1.826075	l yy
-1.525045	l zh	-0.3414174
-1.168792	ll SIL	-0.4635024
-0.5947608	ll i	-0.3262726
-1.63793	ll ii	-0.1674987
-1.11919	ll ja	-0.1780859
-1.11919	ll je	-0.3671986
-1.469822	ll ju
-1.469822	ll k	-0.397309
-1.770852	ll kk
-0.770852	ll n	0.006021038
-1.168792	ll sh	0.01264351
-1.469822	ll t	-0.3959665
-1.11919	ll uj	-0.2193556
-1.770852	ll zz
-0.3537363	m SIL	-1.20412
-1.243038	m a
-1.712176	m aa	-0.2083171
-0.8037053	m ay	-0.1928349
-1.712176	m n
-0.9420081	m oo	-0.1345747
-1.544068	m pp	-0.3724854
-1.712176	m u	-0.300737
-1.712176	m uu
-1.845098	m y
-1.845098	m yy
-0.1890562	mm i	-0.0103941
-1.230449	mm ii
-0.6283889	mm je
-1.402261	n SIL	-0.4635024
-1.050079	n a	-0.1345368
-0.8002014	n aa	-0.1327931
-0.4728425	n ay	-0.04651009
-1.871399	n c
-0.9629287	n oo	-0.2111197
-2.004321	n s
-2.004321	n t
-1.22617	n u
-2.004321	n uu
-0.890378	n y	0.09504973
-1.703291	n yy
-1.748188	nn ch
-0.30103	nn i	-0.2023332
-0.90309	nn ii	-0.07649036
-1.146128	nn ja	-0.06044191
-0.7067953	nn je	-0.07430341
-1.748188	nn k
-1.748188	nn sch
-1.447158	nn sh	-0.172913
-0.8016323	oo SIL	-0.90309
-1.375664	oo b
-1.676694	oo ch
-1.676694	oo d
-1.977724	oo dd
-1.326061	oo f	0.1312403
-1.977724	oo g
-1.199572	oo i	0.04543319
-1.074634	oo j	-0.2092596
-1.676694	oo k	-0.3735061
-1.977724	oo l
-1.326061	oo ll	-0.2529837
-1.326061	oo m	0.06493853
-1.977724	oo mm
-1.844801	oo n	-0.3923318
-1.676694	oo nn
-1.132626	oo p	-0.2334908
-1.326061	oo r	-0.05532449
-1.199572	oo s	-0.07389842
-1.199572	oo t	-0.2548324
-1.844801	oo v	-0.2637534
-1.676694	oo z
-1.844801	oo zh	-0.1346617
-0.80618	p a	-0.07309052
-0.6600519	p ay	-0.111677
-1.673258	p k	-0.2019828
-1.80618	p kk
-1.80618	p ll
-1.20412	p oo
-0.5274264	p r	0.259516
-0.90309	p rr	0.2096568
-1.50515	p sch
-1.80618	p u
-1.80618	p uu
-0.4771213	pp i	-0.2559308
-0.9462589	pp ii	-0.2032313
-0.7781513	pp j	-0.4373917
-0.9462589	pp je
-1.747891	r SIL	-0.1088515
-0.8016323	r a	-0.2082987
-0.6255411	r aa	-0.2082956
-0.8016323	r ay	-0.1764054
-1.880814	r gg
-1.880814	r n
-0.7047223	r oo	-0.1465925
-1.880814	r sh
-1.747891	r u
-1.579784	r v
-1.278754	r y
-1.278754	r yy	-0.1238289
-1.518514	rr SIL
-0.1962947	rr i	-0.2348802
-1.385592	rr ii	-0.1881833
-1.217484	rr ja
-0.8668517	rr je	-0.1879697
-1.518514	rr jo
-1.154902	s SIL	0.02580497
-1.39794	s a	-0.1505632
-1.867078	s aa
-1.045758	s ay	-0.1425734
-1.69897	s h	-0.3645165
-0.9586073	s k	-0.09624583
-1.867078	s kk	0.1353003
-0.8538719	s l	-0.09801538
-1.348338	s ll	-0.2520377
-1.348338	s m	-0.1455534
-2	s mm
-1.348338	s n	-0.1292562
-1.69897	s nn
-0.6575773	s t	-0.1352769
-1.39794	s uu	-0.1278074
-2	s vv
-1.69897	s y	-0.3055386
-0.5660477	sch i
-0.69897	sch ii
-0.69897	sch uj
-1.278754	sh SIL
-1.278754	sh aa
-0.9777236	sh ay
-1.145831	sh ee	-0.08521012
-1.278754	sh k
-1.278754	sh oo
-1.278754	sh t
-0.3245111	sh y	0.09590961
-1.462398	ss SIL
-0.3484547	ss i	-0.2641247
-1.161368	ss ii
-1.161368	ss je
-1.462398	ss jo
-1.462398	ss ju
-0.559308	ss tt	-0.08960526
-0.6910011	t SIL	-1.060698
-0.9920311	t a	-0.1388273
-0.9194804	t aa	-0.1475987
-0.8293038	t ay	-0.3278232
-1.900501	t k
-2.033424	t ll
-1.900501	t n	-0.06666438
-0.9194804	t oo	-0.1269411
-1.381762	t r	-0.06892044
-1.900501	t rr	0.1944217
-2.033424	t ss
-2.033424	t t
-2.033424	t u
-1.431364	t v	-0.02345834
-1.079181	t vv	0.6912951
-1.732394	t y
-0.4511855	tt SIL	-1.079181
-0.3077634	tt i	0.1134959
-1.161251	tt ii	-0.1942712
-1.812913	tt j
-1.210853	tt je	-0.1051284
-0.6532125	u SIL	-0.7403627
-1.653213	u c
-0.69897	u ch	-0.4705793
-1.653213	u d
-1.352183	u g
-1.653213	u gg
-1.653213	u j
-1.653213	u kk
-1.653213	u l
-1.051152	u ll	-0.1546092
-1.653213	u mm
-1.653213	u p
-1.653213	u pp
-1.352183	u r
-1.051152	u s	-0.1286278
-1.653213	u t
-1.52029	u uj
-1.653213	u z
-0.6493678	uj SIL	0.1119351
-1	uj b
-0.6493678	uj c	0.2258784
-1	uj ch
-1.30103	uj sch
-0.69897	uj t	-0.1671848
-1.30103	uj uj
-1.2095	uu SIL	-0.1088515
-1.342423	uu ch
-1.342423	uu dd
-1.342423	uu g
-1.041393	uu h
-1.041393	uu k
-0.5642715	uu m	-0.2744915
-1.342423	uu mm
-1.342423	uu nn
-1.342423	uu sh
-1.342423	uu tt
-1.041393	uu uj
-1.021189	v a	-0.287425
-0.8962505	v aa	-0.04941535
-0.544068	v ay	-0.1718074
-1.021189	v ll	-0.5620319
-1.498311	v n
-1.799341	v nn
-0.845098	v oo	-0.1246567
-1.799341	v u
-1.799341	v uu
-1.021189	v y	-0.08731725
-1.197281	v yy
-0.2730013	vv i	-0.1548993
-1.176091	vv ii
-0.4357286	vv je	-0.07277832
-0.544068	y SIL	-0.8750613
-1.690196	y c
-1.389166	y ch	-0.1786654
-1.690196	y f
-1.088136	y h	-0.3763523
-0.7359536	y i	-0.8033938
-1.088136	y j	-0.3717321
-1.690196	y k
-1.690196	y l
-1.557274	y m	-0.155848
-1.690196	y n
-1.690196	y r
-1.690196	y sh
-0.9120448	y v	-0.4024966
-1	yy SIL	-0.1506367
-1.30103	yy f
-1	yy g
-1.30103	yy h
-1	yy i	-0.300818
-1.30103	yy k
-1.168108	yy l	-0.1000774
-1.30103	yy m
-1.30103	yy r
-1.30103	yy sh
-1.168108	yy tt	0.04948847
-1.30103	yy vv
-1.30103	yy z
-0.7900504	z a	-0.3098195
-0.9165395	z aa	-0.0933643
-0.7900504	z ay	-0.09543125
-1.435279	z dd	0.1168169
-1.267172	z m	-0.3989603
-0.7900504	z n	-0.02285848
-1.435279	z nn	0.05611903
-1.568202	z rr
-1.267172	z u	-0.411238
-1.568202	z v
-1.267172	z y	-0.394939
-1.30103	zh aa
-0.5228788	zh d	-0.5411456
-1	zh ee	-0.2919658
-0.6493678	zh n	-0.02001312
-1	zh y
-0.69897	zh yy	-0.1390473
-0.3441989	zz ja	-0.1357665

\3-grams:
-1.138575	<s> SIL a
-1.48703	<s> SIL b
-2.337918	<s> SIL c
-1.370524	<s> SIL ch
-1.278754	<s> SIL d
-1.600973	<s> SIL dd
-2.35423	<s> SIL ee
-2.084341	<s> SIL f
-2.35423	<s> SIL g
-2.337918	<s> SIL h
-2.08087	<s> SIL i
-2.337918	<s> SIL ii
-1.082459	<s> SIL k
-2.08087	<s> SIL ll
-1.64673	<s> SIL m
-2.35423	<s> SIL mm
-1.220762	<s> SIL n
-1.299943	<s> SIL nn
-2.35423	<s> SIL oo
-0.9382151	<s> SIL p
-2.35423	<s> SIL pp
-1.48703	<s> SIL r
-1.64673	<s> SIL rr
-1.032771	<s> SIL s
-2.08087	<s> SIL ss
-1.55958	<s> SIL t
-2.084341	<s> SIL tt
-1.822822	<s> SIL u
-1.370524	<s> SIL v
-1.396853	<s> SIL z
-0.03778856	aa SIL </s>
-0.007299239	ay SIL </s>
-0.03476211	f SIL </s>
-0.03218468	h SIL </s>
-0.005677133	i SIL </s>
-0.06694679	ii SIL </s>
-0.01703334	j SIL </s>
-0.4522268	ja SIL </s>
-0.05115252	je SIL </s>
-0.02996322	k SIL </s>
-0.02227639	l SIL </s>
-0.08195702	ll SIL </s>
-0.01378828	m SIL </s>
-0.08195702	n SIL </s>
-0.02802872	oo SIL </s>
-0.2140664	r SIL </s>
-0.3284657	s SIL </s>
-0.01930515	t SIL </s>
-0.01848341	tt SIL </s>
-0.04139268	u SIL </s>
-0.4522268	uj SIL </s>
-0.2140664	uu SIL </s>
-0.02996322	y SIL </s>
-0.1894008	yy SIL </s>
-1.350769	SIL a b
-1.215655	SIL a d
-1.350769	SIL a dd
-1.350769	SIL a k
-1.350769	SIL a l
-1.199343	SIL a n
-0.942295	SIL a s
-0.9457656	SIL a t
-0.4359151	b a v
-0.7914608	d a l
-0.7914608	d a s
-0.2140664	g a n
-0.3654921	h a zz
-1.079368	k a k
-1.230793	k a m
-1.079368	k a n
-1.079368	k a nn
-1.230793	k a r
-1.079368	k a t
-1.079368	k a z
-0.7334689	l a g
-0.5820432	l a zh
-0.8426133	n a ch
-0.8426133	n a pp
-0.8883708	p a d
-0.7532568	p a s
-0.9675521	r a ii
-0.9675521	r a s
-0.5590783	r a v
-0.4904308	s a g
-0.7783378	t a j
-0.7783378	t a r
-0.5150964	v a p
-0.6665221	v a z
-0.2580483	z a d
-0.6400351	d aa SIL
-0.382987	d aa ch
-0.3654921	g aa i
-0.4376101	k aa zh
-0.382987	l aa s
-0.3654921	m aa tt
-0.9410651	n aa SIL
-1.092491	n aa ch
-1.092491	n aa k
-0.9410651	n aa ll
-1.092491	n aa sh
-1.143643	r aa s
-0.4771213	r aa vv
-1.143643	r aa z
-1.002314	t aa k
-1.002314	t aa nn
-0.8508885	t aa t
-0.7914608	v aa l
-0.5873408	z aa tt
-0.02632894	c ay SIL
-0.8426133	d ay SIL
-0.8426133	d ay i
-0.8426133	d ay v
-0.2140664	i ay g
-0.8883708	k ay SIL
-0.8883708	k ay j
-0.8883708	k ay ll
-0.7074993	l ay SIL
-0.9297635	m ay SIL
-0.9297635	m ay j
-0.9297635	m ay s
-0.5212897	m ay tt
-0.4900862	n ay SIL
-1.011376	n ay i
-1.268424	n ay j
-1.41985	n ay m
-1.268424	n ay p
-1.41985	n ay ss
-1.41985	n ay v
-1.41985	n ay z
-0.8830732	p ay i
-1.034499	p ay k
-0.8830732	p ay l
-0.8161263	r ay m
-0.9675521	r ay n
-0.8161263	r ay z
-0.6911876	s ay f
-0.8426133	s ay m
-0.1627273	t ay SIL
-0.3521825	v ay SIL
-0.9922176	v ay i
-0.9922176	v ay l
-0.6665221	z ay s
-1.002314	SIL b ay
-1.002314	SIL b oo
-0.8508885	SIL b uu
-1.002314	SIL b y
-1.002314	SIL b yy
-0.3654921	a b j
-0.6400351	i b a
-0.7914608	i b r
-0.2140664	je b u
-0.2140664	i bb ja
-0.06694679	i c ay
-0.4522268	uj c ay
-0.7138166	SIL ch i
-0.9673941	SIL ch ii
-1.11882	SIL ch ja
-1.11882	SIL ch t
-0.2580483	aa ch i
-0.3654921	ay ch i
-0.3390051	i ch jo
-0.2580483	ii ch i
-0.6665221	ii ch n
-0.3654921	je ch i
-0.6911876	u ch i
-0.1760913	u ch ii
-0.1894008	y ch i
-0.8055869	SIL d a
-1.21059	SIL d aa
-1.059164	SIL d oo
-1.21059	SIL d r
-0.8021163	SIL d v
-0.5590783	a d aa
-0.5590783	a d n
-0.9675521	a d uu
-0.3654921	aa d ay
-0.2580483	zh d ay
-0.6665221	zh d y
-0.7532568	SIL dd i
-0.7532568	SIL dd je
-0.3654921	z dd i
-0.178867	SIL ee t
-0.3654921	sh ee nn
-0.1894008	zh ee nn
-0.5820432	SIL f ss
-0.5820432	SIL f t
-0.4522268	ay f SIL
-0.4522268	oo f SIL
-0.4359151	SIL g l
-0.6665221	a g aa
-0.5150964	a g l
-0.2140664	ay g a
-0.1894008	a gg ii
-0.1894008	l gg i
-0.3654921	SIL h a
-0.3390051	i h SIL
-0.2140664	ii h SIL
-0.1894008	s h oo
-0.08195702	y h SIL
-0.4904308	aa i c
-0.4904308	aa i m
-0.2498775	ay i SIL
-1.092491	ay i t
-1.092491	ay i v
-1.184103	ch i SIL
-1.184103	ch i m
-1.335529	ch i nn
-1.335529	ch i r
-0.544068	ch i s
-1.184103	ch i t
-0.8508885	dd i ay
-1.002314	dd i ll
-1.002314	dd i n
-1.002314	dd i t
-0.3654921	gg i b
-0.02996322	i i SIL
-0.1894008	j i s
-0.6665221	ja i c
-0.6665221	ja i t
-0.5983548	kk i SIL
-0.7334689	kk i h
-0.1760913	ll i SIL
-0.7946495	mm i SIL
-0.7783378	mm i nn
-1.335529	nn i SIL
-1.335529	nn i b
-1.184103	nn i ch
-0.447158	nn i i
-1.335529	nn i k
-1.335529	nn i p
-1.335529	nn i v
-0.6665221	oo i SIL
-0.3390051	pp i rr
-0.8021163	rr i b
-1.21059	rr i d
-1.21059	rr i m
-1.059164	rr i sh
-1.21059	rr i vv
-1.21059	rr i z
-0.2108534	ss i SIL
-0.9885176	tt i SIL
-0.9885176	tt i ll
-1.258407	tt i m
-1.242095	tt i r
-1.393521	tt i t
-0.9410651	vv i l
-0.9573768	vv i ll
-1.092491	vv i ss
-1.092491	vv i tt
-0.05115252	y i SIL
-0.1894008	yy i SIL
-0.1894008	a ii ch
-0.8426133	ch ii s
-0.4341395	ch ii tt
-0.3654921	ll ii tt
-0.7334689	nn ii m
-0.3654921	pp ii s
-0.3654921	rr ii SIL
-0.5873408	tt ii SIL
-0.5873408	tt ii ch
-0.4359151	a j ja
-0.04139268	ay j SIL
-0.1894008	b j i
-0.3654921	i j SIL
-0.3654921	je j s
-0.1249387	oo j SIL
-0.1894008	pp j ju
-0.08195702	y j SIL
-0.3654921	bb ja SIL
-0.6665221	ch ja tt
-0.3390051	j ja tt
-0.5873408	ll ja i
-0.5873408	ll ja uj
-0.4904308	nn ja i
-0.3654921	zz ja i
-0.7334689	dd je j
-0.7334689	dd je l
-0.4359151	ll je d
-0.5873408	ll je nn
-0.9297635	nn je ch
-0.9297635	nn je s
-0.4359151	rr je b
-0.4904308	tt je SIL
-0.9297635	vv je SIL
-0.7783378	vv je t
-0.9297635	vv je tt
-0.3390051	ch jo t
-0.3654921	j ju tt
-0.288065	SIL k a
-0.615424	SIL k aa
-1.406885	SIL k n
-1.406885	SIL k u
-0.6665221	a k a
-0.6665221	a k oo
-0.178867	aa k SIL
-0.3390051	ay k SIL
-0.5150964	i k SIL
-0.1894008	ll k ay
-0.1894008	oo k SIL
-0.3654921	p k u
-0.9297635	s k a
-0.5212897	s k ay
-0.7783378	s k oo
-0.1894008	a kk ii
-0.3654921	s kk i
-0.5873408	a l gg
-0.5873408	a l zh
-0.5314081	aa l SIL
-0.4341395	ay l SIL
-0.6911876	ay l u
-0.5314081	g l aa
-0.5820432	i l SIL
-0.3249951	i l ay
-0.4359151	ii l SIL
-0.5873408	ii l ss
-0.3654921	je l ay
-0.1894008	k l aa
-0.8993849	s l a
-1.034499	s l ay
-0.8830732	s l oo
-0.8830732	s l uu
-0.3654921	yy l SIL
-0.4904308	SIL ll i
-0.4904308	SIL ll uj
-0.4359151	aa ll i
-0.6559883	i ll i
-1.064462	i ll ii
-0.6594589	i ll n
-0.1894008	ii ll i
-0.1894008	k ll uj
-0.5873408	oo ll SIL
-0.5873408	oo ll sh
-0.5873408	s ll i
-0.4359151	s ll je
-0.4904308	u ll t
-0.2580483	v ll ja
-0.6665221	v ll je
-0.6911876	SIL m ay
-0.8426133	SIL m oo
-0.1894008	a m pp
-0.3654921	aa m SIL
-0.1249387	ay m SIL
-0.9675521	ay m ay
-0.9573768	i m SIL
-1.092491	i m aa
-1.092491	i m n
-1.092491	i m uu
-0.2140664	ii m SIL
-0.4522268	oo m SIL
-0.4359151	s m oo
-0.2580483	uu m ay
-0.2140664	y m SIL
-0.1894008	z m oo
-0.4359151	SIL mm i
-0.3654921	i mm je
-0.8635789	SIL n a
-1.133468	SIL n aa
-0.4771213	SIL n ay
-1.117156	SIL n oo
-0.4341395	a n aa
-0.6911876	a n c
-0.5873408	ay n u
-0.5873408	ay n y
-0.3390051	ch n ay
-0.4359151	d n oo
-0.4359151	i n aa
-0.1894008	k n oo
-0.4833676	ll n ay
-0.8883708	ll n y
-0.2140664	oo n SIL
-0.4522268	s n y
-0.3654921	t n ay
-0.5150964	z n aa
-0.6665221	z n ay
-0.4359151	zh n ay
-0.2596373	SIL nn i
-1.189401	SIL nn ii
-0.7843976	SIL nn je
-0.5873408	a nn ii
-0.5873408	a nn je
-0.3654921	aa nn i
-0.08195702	ee nn i
-0.4359151	i nn ja
-0.2580483	je nn i
-0.3654921	z nn i
-0.5873408	SIL oo p
-0.4904308	b oo ll
-0.6911876	k oo f
-0.6665221	l oo SIL
-0.6665221	l oo m
-0.6665221	l oo n
-0.7914608	m oo t
-0.7914608	m oo zh
-0.5212897	n oo SIL
-0.9297635	n oo p
-0.9297635	n oo v
-0.9130363	r oo i
-1.064462	r oo p
-0.6559883	r oo s
-1.002314	t oo SIL
-0.5938404	t oo r
-1.002314	t oo t
-0.4341395	v oo SIL
-0.7085153	SIL p a
-0.5488145	SIL p ay
-1.142655	SIL p oo
-0.6213651	SIL p r
-1.146125	SIL p rr
-0.08195702	a p r
-0.1894008	i p r
-0.5820432	oo p k
-0.7334689	oo p sch
-0.4359151	SIL pp i
-0.5873408	SIL pp je
-0.1894008	a pp ii
-0.1894008	m pp j
-0.5938404	SIL r a
-0.8672001	SIL r aa
-0.8508885	SIL r ay
-0.5983548	a r oo
-0.4904308	b r a
-0.1894008	d r u
-0.7334689	i r aa
-0.7334689	i r ay
-0.5873408	oo r ay
-1.167124	p r a
-0.5006024	p r aa
-1.015699	p r ay
-1.03201	p r oo
-1.167124	p r yy
-0.5873408	t r aa
-0.5873408	t r oo
-0.7074993	SIL rr i
-0.6911876	SIL rr je
-0.2580483	i rr i
-0.3864576	p rr i
-0.3654921	t rr i
-1.048099	SIL s a
-1.456573	SIL s aa
-1.305147	SIL s ay
-0.7900504	SIL s k
-1.051569	SIL s l
-1.305147	SIL s m
-1.051569	SIL s t
-1.048099	SIL s uu
-1.002314	a s ll
-1.002314	a s m
-0.3357921	a s t
-0.5314081	aa s n
-0.4904308	ay s t
-1.064462	i s h
-1.064462	i s k
-0.6559883	i s l
-1.064462	i s nn
-1.064462	i s t
-0.5873408	ii s ay
-0.5873408	ii s l
-0.1894008	j s t
-0.4904308	je s k
-0.6665221	oo s SIL
-0.4904308	u s ay
-0.1894008	aa sh y
-0.4904308	i sh ee
-0.3390051	ll sh y
-0.1894008	nn sh y
-0.4904308	SIL ss tt
-0.1894008	aa ss i
-0.1894008	ay ss tt
-0.4904308	f ss je
-0.3390051	i ss tt
-0.1894008	ii ss i
-0.4522268	l ss i
-0.7783378	SIL t a
-0.9297635	SIL t aa
-0.7783378	SIL t oo
-0.8161263	a t oo
-0.30103	a t vv
-0.3654921	aa t ay
-0.1894008	ch t oo
-0.08195702	ee t ay
-0.2140664	f t a
-0.2304489	i t SIL
-0.9673941	i t aa
-1.11882	i t r
-0.4359151	je t SIL
-0.3390051	jo t n
-0.1894008	ll t aa
-0.6665221	oo t SIL
-0.6665221	oo t ay
-0.6665221	oo t rr
-1.09568	s t a
-0.5642715	s t aa
-1.079368	s t oo
-1.230793	s t r
-1.230793	s t v
-1.079368	s t vv
-0.3390051	uj t SIL
-0.5983548	SIL tt i
-0.7334689	SIL tt je
-0.3654921	a tt je
-0.6563468	aa tt SIL
-0.6400351	aa tt i
-0.382987	ay tt SIL
-0.382987	ay tt i
-0.2580483	i tt SIL
-0.6563468	ii tt SIL
-0.6400351	ii tt i
-0.178867	ja tt i
-0.5873408	je tt SIL
-0.4359151	je tt i
-0.1894008	ju tt i
-0.382987	ss tt i
-0.6400351	ss tt ii
-0.3654921	yy tt i
-0.2580483	SIL u ch
-0.4359151	b u s
-0.6563468	k u SIL
-0.2140664	l u ch
-0.2140664	m u SIL
-0.1894008	z u ll
-0.2140664	ja uj c
-0.5873408	ll uj b
-0.5873408	ll uj ch
-0.4904308	b uu k
-0.3654921	d uu m
-0.3390051	s uu m
-0.7103459	SIL v a
-1.11882	SIL v aa
-1.11882	SIL v oo
-0.7103459	SIL v y
-0.7103459	SIL v yy
-0.8883708	a v aa
-0.479897	a v ll
-0.8883708	a v oo
-0.5314081	ay v ay
-0.6665221	i v ll
-0.6665221	i v oo
-0.2140664	oo v ay
-0.4904308	t v ay
-0.6665221	y v aa
-0.2580483	y v ay
-0.05115252	aa vv i
-0.1894008	ay vv i
-0.8426133	t vv i
-0.4376101	t vv je
-0.3654921	b y SIL
-0.8508885	n y SIL
-0.8672001	n y i
-1.002314	n y j
-1.002314	n y m
-0.1894008	s y SIL
-0.6911876	sh y SIL
-0.8426133	sh y i
-0.8426133	sh y v
-0.6665221	v y ch
-0.1894008	z y v
-0.4904308	r yy g
-0.4904308	zh yy l
-0.4259687	SIL z a
-0.684017	SIL z ay
-0.684017	SIL z n
-0.5150964	a z aa
-0.6665221	a z m
-0.3654921	aa z n
-0.5873408	ay z y
-0.3654921	i z u
-0.6665221	a zh ee
-0.5150964	a zh yy
-0.1249387	aa zh d
-0.1894008	l zh n
-0.3654921	oo zh n
-0.1894008	a zz ja

\end\
